digraph Tree {
node [shape=box, style="filled, rounded", color="black", fontname=helvetica] ;
edge [fontname=helvetica] ;
0 [label="petal width (cm) <= 0.8\ngini = 0.66\nsamples = 100\nvalue = [51, 45, 54]\nclass = virginica", fillcolor="#fbf9fe"] ;
1 [label="gini = 0.0\nsamples = 36\nvalue = [51, 0, 0]\nclass = setosa", fillcolor="#e58139"] ;
0 -> 1 [labeldistance=2.5, labelangle=45, headlabel="True"] ;
2 [label="petal length (cm) <= 4.75\ngini = 0.5\nsamples = 64\nvalue = [0, 45, 54]\nclass = virginica", fillcolor="#eadefb"] ;
0 -> 2 [labeldistance=2.5, labelangle=-45, headlabel="False"] ;
3 [label="gini = 0.0\nsamples = 24\nvalue = [0, 41, 0]\nclass = versicolor", fillcolor="#39e581"] ;
2 -> 3 ;
4 [label="petal length (cm) <= 5.05\ngini = 0.13\nsamples = 40\nvalue = [0, 4, 54]\nclass = virginica", fillcolor="#8a48e7"] ;
2 -> 4 ;
5 [label="sepal length (cm) <= 6.5\ngini = 0.46\nsamples = 8\nvalue = [0, 4, 7]\nclass = virginica", fillcolor="#c9aaf4"] ;
4 -> 5 ;
6 [label="sepal width (cm) <= 3.1\ngini = 0.35\nsamples = 7\nvalue = [0, 2, 7]\nclass = virginica", fillcolor="#a572ec"] ;
5 -> 6 ;
7 [label="sepal length (cm) <= 6.25\ngini = 0.22\nsamples = 6\nvalue = [0, 1, 7]\nclass = virginica", fillcolor="#9355e9"] ;
6 -> 7 ;
8 [label="gini = 0.0\nsamples = 4\nvalue = [0, 0, 6]\nclass = virginica", fillcolor="#8139e5"] ;
7 -> 8 ;
9 [label="sepal width (cm) <= 2.6\ngini = 0.5\nsamples = 2\nvalue = [0, 1, 1]\nclass = versicolor", fillcolor="#ffffff"] ;
7 -> 9 ;
10 [label="gini = 0.0\nsamples = 1\nvalue = [0, 1, 0]\nclass = versicolor", fillcolor="#39e581"] ;
9 -> 10 ;
11 [label="gini = 0.0\nsamples = 1\nvalue = [0, 0, 1]\nclass = virginica", fillcolor="#8139e5"] ;
9 -> 11 ;
12 [label="gini = 0.0\nsamples = 1\nvalue = [0, 1, 0]\nclass = versicolor", fillcolor="#39e581"] ;
6 -> 12 ;
13 [label="gini = 0.0\nsamples = 1\nvalue = [0, 2, 0]\nclass = versicolor", fillcolor="#39e581"] ;
5 -> 13 ;
14 [label="gini = 0.0\nsamples = 32\nvalue = [0, 0, 47]\nclass = virginica", fillcolor="#8139e5"] ;
4 -> 14 ;
}